tree
version=v4
num_class=1
num_tree_per_iteration=1
label_index=0
max_feature_idx=48
objective=binary sigmoid:1
feature_names=TransactionAmt ProductCD card1 card2 card3 card4 card5 card6 addr1 addr2 P_emaildomain C1 C2 C3 C4 C5 C6 C7 C8 C9 C10 C11 C12 C13 C14 dist1 dist2 dist3 dist4 dist5 dist6 dist7 dist8 dist9 dist10 dist11 dist12 dist13 dist14 dist15 M1 M2 M3 M4 M5 M6 M7 M8 M9
feature_infos=[0.016501474244565394:822.12588902042307] [0:4] [1000:17999] [100:599] [-1:185] [0:3] [100:249] [0:1] [100:499] [60:96] [0:3] [0:7] [0:8] [0:7] [0:6] [0:7] [0:7] [0:7] [0:6] [0:7] [0:6] [0:7] [0:7] [0:6] [0:7] [0:499] [0:499] none none none none none none none none none none none none none [0:2] [0:2] [0:2] [0:2] [0:2] [0:2] [0:2] [0:2] [0:2]
tree_sizes=653 779 667 984 986 978 882 983 673 679 780 985 984 995 890 678 896 988 990 994 884 987 987 897 985 994 1000 987 987 990 673 1000 983 1006 888 988 885 992 983 1007 1001 677 999 996 997 990 893 988 987 985

Tree=0
num_leaves=5
num_cat=0
split_feature=15 10 6 14
split_gain=9.46589 7.31797 18.2311 12.8395
threshold=4.5000000000000009 1.5000000000000002 238.50000000000003 3.5000000000000004
decision_type=2 2 2 2
left_child=1 2 -1 -3
right_child=-2 3 -4 -5
leaf_value=-3.470703612939714 -3.1626549696325519 -3.4971866482189617 -3.3277456549592883 -3.2737313691959766
leaf_weight=136.42080402374268 0.9603000283241262 141.45510417222977 9.5448002815246564 2.6190000772476187
leaf_count=4688 33 4861 328 90
internal_value=-3.4761 -3.47714 -3.46136 -3.49312
internal_weight=291 290.04 145.966 144.074
internal_count=10000 9967 5016 4951
is_linear=0
shrinkage=1


Tree=1
num_leaves=6
num_cat=0
split_feature=26 7 10 6 25
split_gain=7.06382 17.137 7.34227 11.6549 9.29458
threshold=496.50000000000006 1.0000000180025095e-35 1.5000000000000002 238.50000000000003 481.50000000000006
decision_type=2 2 2 2 2
left_child=2 -2 3 -1 -4
right_child=1 -3 4 -5 -6
leaf_value=0.0063460814306488013 -0.10306517952082937 0.55225968869306763 -0.022445237754062177 0.11296156833885623 0.11611862290488346
leaf_weight=137.03548984229565 0.83667860366403946 0.76290212199091911 136.46927638910711 11.082597028464077 5.0189783591777077
leaf_count=4680 29 26 4759 331 175
internal_value=-8.12309e-05 0.209485 -0.00123872 0.0143233 -0.01753
internal_weight=291.206 1.59958 289.606 148.118 141.488
internal_count=10000 55 9945 5011 4934
is_linear=0
shrinkage=0.1


Tree=2
num_leaves=5
num_cat=0
split_feature=6 3 15 6
split_gain=5.96973 9.70637 5.5532 5.5272
threshold=100.50000000000001 271.50000000000006 4.5000000000000009 247.50000000000003
decision_type=2 2 2 2
left_child=1 -1 3 -2
right_child=2 -3 -4 -5
leaf_value=-0.10310942089977018 -0.0038781398453961655 0.37872847752219402 0.20570501548440201 0.1120222917473799
leaf_weight=0.70012055896222491 284.19591871462762 1.0377889927476642 1.2904834188520897 4.1751197911798945
leaf_count=24 9778 36 33 129
internal_value=-0.000165185 0.184619 -0.00127385 -0.0022001
internal_weight=291.399 1.73791 289.662 288.371
internal_count=10000 60 9940 9907
is_linear=0
shrinkage=0.1


Tree=3
num_leaves=8
num_cat=0
split_feature=10 0 13 14 2 6 25
split_gain=5.10546 9.47059 12.0962 8.60828 10.1504 8.5056 6.9552
threshold=1.5000000000000002 32.666279844935566 1.5000000000000002 3.5000000000000004 12616.500000000002 100.50000000000001 481.50000000000006
decision_type=2 2 2 2 2 2 2
left_child=1 2 -1 6 -5 -3 -2
right_child=3 5 -4 4 -6 -7 -8
leaf_value=0.085085959334817551 -0.022364460051706708 0.28254350582233728 -0.038107244700539313 0.031864228422698808 0.42281293763314753 -0.0055763616533116454 0.090836505645691359
leaf_weight=30.801568232476711 131.49374255537987 1.0343729555606831 10.752778735011814 2.2125965431332584 0.94894443824887265 108.55532042682171 5.6613004654645911
leaf_count=1028 4699 28 360 64 26 3619 176
internal_value=-0.000195125 0.0125571 0.053208 -0.0139314 0.149208 -0.00285691 -0.0176919
internal_weight=291.461 151.144 41.5543 140.317 3.16154 109.59 137.155
internal_count=10000 5035 1388 4965 90 3647 4875
is_linear=0
shrinkage=0.1


Tree=4
num_leaves=8
num_cat=0
split_feature=8 12 20 6 2 5 25
split_gain=4.47002 6.76502 9.40777 6.15922 5.17258 5.00499 4.02244
threshold=261.50000000000006 3.5000000000000004 1.0000000180025095e-35 100.50000000000001 9968.5000000000018 2.5000000000000004 204.50000000000003
decision_type=2 2 2 2 2 2 2
left_child=1 6 -3 4 -2 -5 -1
right_child=3 2 -4 5 -6 -7 -8
leaf_value=0.0039755584291296898 0.37918241660193441 -0.10327589409965046 0.36673013554708056 -0.0018110481598397191 0.021630156589071386 0.037522240150714675 -0.033596026040670655
leaf_weight=48.538171900436282 0.82649157196283229 0.70997452735900779 1.0642630551010368 127.32494517043233 0.7926265262067318 43.370033234357834 69.006638711318374
leaf_count=1667 20 24 37 4380 21 1493 2358
internal_value=-0.00027817 -0.0151561 0.178654 0.010024 0.204146 0.00818272 -0.0180815
internal_weight=291.633 119.319 1.77424 172.314 1.61912 170.695 117.545
internal_count=10000 4086 61 5914 41 5873 4025
is_linear=0
shrinkage=0.1


Tree=5
num_leaves=8
num_cat=0
split_feature=46 26 47 2 25 6 26
split_gain=4.45619 7.34135 11.5431 7.09911 5.84122 12.749 5.90648
threshold=1.5000000000000002 27.500000000000004 1.5000000000000002 17881.500000000004 65.500000000000014 238.50000000000003 362.50000000000006
decision_type=2 2 2 2 2 2 2
left_child=4 2 -2 -3 5 -1 -6
right_child=1 3 -4 -5 6 -7 -8
leaf_value=0.016617382894687026 0.23106777242234591 0.008392609041218942 -0.10304453372786776 0.32962225985000115 -0.027249177491074979 0.29667033206883309 0.01392681420636524
leaf_weight=23.387184493243698 3.5902618803083888 89.639578618109226 1.4523239713162182 0.69329558871686359 122.53614784032106 1.7469609826803196 48.675337359309196
leaf_count=808 122 3068 51 24 4210 51 1666
internal_value=-0.000320293 0.017413 0.13484 0.010858 -0.0089343 0.0360826 -0.0155429
internal_weight=291.721 95.3755 5.04259 90.3329 196.346 25.1341 171.211
internal_count=10000 3265 173 3092 6735 859 5876
is_linear=0
shrinkage=0.1


Tree=6
num_leaves=7
num_cat=0
split_feature=3 3 6 18 5 22
split_gain=4.12679 11.5527 16.8795 7.21238 5.26661 4.58207
threshold=530.50000000000011 521.50000000000011 135.50000000000003 3.5000000000000004 2.5000000000000004 1.5000000000000002
decision_type=2 2 2 2 2 2
left_child=1 4 -3 5 -1 -2
right_child=3 2 -4 -5 -6 -7
leaf_value=-0.007278254164325375 -0.055920499890335165 0.43861828226360355 0.036650435850300214 0.26437492660309897 0.026182928855721432 0.021063448815376213
leaf_weight=182.53780662640929 29.624049296602607 1.4760812688618887 3.5743204150348902 0.81659121066331763 63.366899514570832 10.461849542334674
leaf_count=6295 1012 50 121 29 2137 356
internal_value=-0.000381459 0.00441916 0.154134 -0.0298354 0.00134432 -0.0358288
internal_weight=291.858 250.955 5.0504 40.9025 245.905 40.0859
internal_count=10000 8603 171 1397 8432 1368
is_linear=0
shrinkage=0.1


Tree=7
num_leaves=8
num_cat=0
split_feature=10 25 0 25 48 14 3
split_gain=4.10987 8.1072 8.12046 6.46749 29.0209 4.63398 1.5795
threshold=1.5000000000000002 473.50000000000006 32.666279844935566 481.50000000000006 1.0000000180025095e-35 3.5000000000000004 566.50000000000011
decision_type=2 2 2 2 2 2 2
left_child=1 2 -1 5 -5 -2 -3
right_child=3 6 -4 4 -6 -7 -8
leaf_value=0.053569102430802609 -0.020696404494976447 -0.10326208067888938 0.0012246699065651115 0.40487287461362814 -0.057975027667979288 0.096230008437162201 0.067804078091521738
leaf_weight=41.402427177876234 128.89201984182 6.9849641639739266 104.29692670889199 1.965677261352538 4.3581304140388966 3.480988807976245 0.584949530661106
leaf_count=1315 4699 232 3468 56 124 86 20
internal_value=-0.000429635 0.0108567 0.016099 -0.0129018 0.0858955 -0.0176216 -0.0900433
internal_weight=291.966 153.269 145.699 138.697 6.32381 132.373 7.56991
internal_count=10000 5035 4783 4965 180 4785 252
is_linear=0
shrinkage=0.1


Tree=8
num_leaves=5
num_cat=0
split_feature=26 3 3 2
split_gain=9.78816 4.1462 9.72213 8.85925
threshold=498.50000000000006 337.50000000000006 301.50000000000006 17881.500000000004
decision_type=2 2 2 2
left_child=1 2 -1 -3
right_child=-2 3 -4 -5
leaf_value=6.3365363860971396e-05 0.40942786590642744 -0.014799447612253047 0.074033745313332525 0.27624499754653786
leaf_weight=119.13302671164274 0.58135183155536552 150.4176739808172 20.88290354795754 1.0531946048140515
leaf_count=4088 14 5143 722 33
internal_value=-0.00049149 -0.00130905 0.0110958 -0.0127758
internal_weight=292.068 291.487 140.016 151.471
internal_count=10000 9986 4810 5176
is_linear=0
shrinkage=0.1


Tree=9
num_leaves=5
num_cat=0
split_feature=26 46 6 25
split_gain=5.35398 4.00128 5.24757 5.1303
threshold=498.50000000000006 1.5000000000000002 161.50000000000003 80.500000000000014
decision_type=2 2 2 2
left_child=1 2 -1 -3
right_child=-2 3 -4 -5
leaf_value=-0.028735101103499468 0.2538782107394274 -0.03578006964720723 0.0045421152076104551 0.025724015268666019
leaf_weight=81.966198710724711 0.82508722320198913 16.305130502209067 112.32877530902624 80.624945091083646
leaf_count=2851 14 549 3872 2714
internal_value=-0.000496581 -0.00121727 -0.00949637 0.0153781
internal_weight=292.05 291.225 194.295 96.9301
internal_count=10000 9986 6723 3263
is_linear=0
shrinkage=0.1


Tree=10
num_leaves=6
num_cat=0
split_feature=24 15 3 3 6
split_gain=3.74765 4.11237 4.10433 1.60542 4.78816e-05
threshold=3.5000000000000004 4.5000000000000009 530.50000000000011 554.50000000000011 239.50000000000003
decision_type=2 2 2 2 2
left_child=1 2 -1 4 -2
right_child=3 -3 -4 -5 -6
leaf_value=0.0049291847894002722 -0.10313176014796602 0.16835034158874129 -0.030208597623357203 0.076732459946256076 -0.10413207906327034
leaf_weight=246.83696913905442 4.15109266526997 1.461846750229596 38.416091011837125 0.55414861440658558 0.54085726477205742
leaf_count=8428 144 31 1364 18 15
internal_value=-0.000478138 0.0010544 0.000197049 -0.0842357 -0.103247
internal_weight=291.961 286.715 285.253 5.2461 4.69195
internal_count=10000 9823 9792 177 159
is_linear=0
shrinkage=0.1


Tree=11
num_leaves=8
num_cat=0
split_feature=8 9 25 12 25 6 2
split_gain=3.73225 5.12893 7.34464 5.96175 4.59194 4.61104 2.98733
threshold=261.50000000000006 73.500000000000014 481.50000000000006 3.5000000000000004 482.50000000000006 134.50000000000003 15439.500000000002
decision_type=2 2 2 2 2 2 2
left_child=1 3 -3 -1 5 -2 -6
right_child=4 2 -4 -5 6 -7 -8
leaf_value=0.01011260330716751 0.041303198109991293 -0.034901031351242673 0.12246653142685188 0.29425480788863628 -0.10387240653497697 0.0026478541121442698 0.076310034232507665
leaf_weight=37.973972728475928 40.805058736354113 76.112994344905019 3.0860388595610848 0.75306128337979217 5.4315669760107985 126.60039958544075 1.107821589335799
leaf_count=1327 1393 2644 93 22 164 4326 31
internal_value=-0.000452019 -0.0141858 -0.0287691 0.0156379 0.00885882 0.0120701 -0.0733481
internal_weight=291.871 117.926 79.199 38.727 173.945 167.405 6.53939
internal_count=10000 4086 2737 1349 5914 5719 195
is_linear=0
shrinkage=0.1


Tree=12
num_leaves=8
num_cat=0
split_feature=17 26 12 6 25 3 46
split_gain=3.66282 12.2873 19.7521 4.48801 7.49008 4.86673 1.44502e-05
threshold=3.5000000000000004 220.50000000000003 1.5000000000000002 238.50000000000003 275.50000000000006 578.50000000000011 1.5000000000000002
decision_type=2 2 2 2 2 2 2
left_child=3 6 -3 5 -5 -1 -2
right_child=1 2 -4 4 -6 -7 -8
leaf_value=-0.0030282214218503231 -0.10293913008146321 0.060908043751111945 0.62849145291445441 0.088581596710722854 -0.025068323729199832 -0.073552164062787723 -0.1034688065973578
leaf_weight=252.61276851221919 1.3352897129952901 2.4330266676843171 0.81969720683991898 13.485853934660556 10.173594448715447 10.179371375590561 0.83846907503902901
leaf_count=8743 49 82 27 391 311 370 27
internal_value=-0.000462399 0.080928 0.203941 -0.00200424 0.039712 -0.00576 -0.103143
internal_weight=291.878 5.42648 3.25272 286.452 23.6594 262.792 2.17376
internal_count=10000 185 109 9815 702 9113 76
is_linear=0
shrinkage=0.1


Tree=13
num_leaves=8
num_cat=0
split_feature=10 25 6 5 6 25 23
split_gain=3.40762 6.91884 6.77618 4.88989 6.95886 6.79268 1.70454
threshold=1.5000000000000002 473.50000000000006 238.50000000000003 1.0000000180025095e-35 104.50000000000001 481.50000000000006 2.5000000000000004
decision_type=2 2 2 2 2 2 2
left_child=1 2 -1 4 -2 -5 -3
right_child=3 6 -4 5 -6 -7 -8
leaf_value=0.0076507623030870374 0.22774581925277115 -0.10296687049986684 0.083978818225982535 -0.007507751646422433 -0.05320106917574844 0.10456257093922179 0.082165736859468277
leaf_weight=135.17186483554542 0.90649741142988105 6.3322349190711966 12.726015504449604 98.411374174058437 32.146780371665955 5.7227915469557038 0.53971585072576989
leaf_count=4473 32 233 310 3604 1185 144 19
internal_value=-0.000510455 0.00966092 0.0142185 -0.0119854 -0.045496 -0.00134882 -0.0884267
internal_weight=291.957 154.77 147.898 137.187 33.0533 104.134 6.87195
internal_count=10000 5035 4783 4965 1217 3748 252
is_linear=0
shrinkage=0.1


Tree=14
num_leaves=7
num_cat=0
split_feature=24 8 8 9 25 6
split_gain=3.40017 3.35165 4.33895 4.01366 1.57741 0.000100303
threshold=3.5000000000000004 261.50000000000006 488.50000000000006 73.500000000000014 466.50000000000006 239.50000000000003
decision_type=2 2 2 2 2 2
left_child=1 3 -3 -1 5 -2
right_child=4 2 -4 -5 -6 -7
leaf_value=0.013983689845189957 -0.10278006584396965 0.013109407346897407 -0.06394619208911409 -0.025681710849149726 0.077209440524592943 -0.10423964244873268
leaf_weight=38.386890664696693 3.8372776526957741 164.89912395738065 7.6464783959090701 76.050493771210313 0.5466798860579728 0.53667661920189846
leaf_count=1317 148 5548 264 2694 14 15
internal_value=-0.000519622 0.000893608 0.00969463 -0.0123763 -0.0829425 -0.102959
internal_weight=291.904 286.983 172.546 114.437 4.92063 4.37395
internal_count=10000 9823 5812 4011 177 163
is_linear=0
shrinkage=0.1


Tree=15
num_leaves=5
num_cat=0
split_feature=26 46 26 3
split_gain=3.19666 3.22792 4.93564 4.59542
threshold=498.50000000000006 1.5000000000000002 27.500000000000004 332.50000000000006
decision_type=2 2 2 2
left_child=1 3 -3 -1
right_child=-2 2 -4 -5
leaf_value=0.0074738374254918723 0.17423170906537724 0.1031192948532464 0.0080127023487476575 -0.023455975431772535
leaf_weight=92.148323496803641 1.0433395467698563 5.7987235002219668 92.48392790555954 100.34666618146002
leaf_count=3180 14 173 3090 3543
internal_value=-0.000494269 -0.0011212 0.013624 -0.00864972
internal_weight=291.821 290.778 98.2827 192.495
internal_count=10000 9986 3263 6723
is_linear=0
shrinkage=0.1


Tree=16
num_leaves=7
num_cat=0
split_feature=24 8 11 41 25 6
split_gain=3.00358 3.10279 4.25962 3.29985 1.61988 7.15451e-05
threshold=3.5000000000000004 133.50000000000003 1.0000000180025095e-35 1.5000000000000002 476.50000000000006 239.50000000000003
decision_type=2 2 2 2 2 2
left_child=1 3 -3 -1 5 -2
right_child=4 2 -4 -5 -6 -7
leaf_value=-0.0086826368301380161 -0.10252014183204582 0.020568769988768078 -0.0057859730369283213 -0.089907155233041741 0.084109807794241057 -0.10381443786035438
leaf_weight=15.875083029270174 3.5359610319137564 96.88725302927196 167.09295617043972 7.3025039415806523 0.52488891780376423 0.48575378395616997
leaf_count=565 150 3311 5693 254 12 15
internal_value=-0.000470051 0.000806774 0.00388687 -0.0342738 -0.0811127 -0.102676
internal_weight=291.704 287.158 263.98 23.1776 4.5466 4.02171
internal_count=10000 9823 9004 819 177 165
is_linear=0
shrinkage=0.1


Tree=17
num_leaves=8
num_cat=0
split_feature=45 21 14 2 20 43 15
split_gain=2.83547 11.1404 12.3723 9.4331 7.70761 7.23428 5.68964
threshold=1.0000000180025095e-35 3.5000000000000004 1.0000000180025095e-35 1906.0000000000002 1.5000000000000002 1.5000000000000002 4.5000000000000009
decision_type=2 2 2 2 2 2 2
left_child=1 5 -3 4 -2 -1 -5
right_child=3 2 -4 6 -6 -7 -8
leaf_value=-0.038606647641264813 0.045001321392364638 -0.10306208402888957 0.4396201493116772 -0.0001638847633210388 0.23620122441435221 0.019939533029039225 0.21401040852542003
leaf_weight=63.31287419423461 7.421007785946129 0.67792370356619258 1.1046630330383775 183.26412684470415 2.9450715519487858 31.659405926242471 1.2488183379173268
leaf_count=2160 256 24 38 6303 98 1098 23
internal_value=-0.000447306 -0.0144412 0.233236 0.0065005 0.0993225 -0.01909 0.00128569
internal_weight=291.634 96.7549 1.78259 194.879 10.3661 94.9723 184.513
internal_count=10000 3320 62 6680 354 3258 6326
is_linear=0
shrinkage=0.1


Tree=18
num_leaves=8
num_cat=0
split_feature=10 25 0 14 18 12 8
split_gain=2.81797 6.2339 6.01665 4.4499 6.04001 4.69795 2.66066e-05
threshold=1.5000000000000002 479.50000000000006 32.666279844935566 3.5000000000000004 1.0000000180025095e-35 3.5000000000000004 320.50000000000006
decision_type=2 2 2 2 2 2 2
left_child=1 2 -1 5 -5 -2 -3
right_child=3 6 -4 4 -6 -7 -8
leaf_value=0.043278679612026881 -0.016950872076858622 -0.10295318077921148 -0.0005764888791322788 0.26455675095852066 0.0051512993464596698 0.11540876623998922 -0.10247277569550464
leaf_weight=44.219060866162181 128.9613488279283 2.9856402352452269 106.93786689825356 1.3546122759580601 2.6604752019047737 2.7385633066296569 1.8780227471143005
leaf_count=1328 4784 113 3513 34 56 91 81
internal_value=-0.000499115 0.00866723 0.0122528 -0.0110369 0.0926696 -0.0141986 -0.102768
internal_weight=291.736 156.021 151.157 135.715 4.01509 131.7 4.86366
internal_count=10000 5035 4841 4965 90 4875 194
is_linear=0
shrinkage=0.1


Tree=19
num_leaves=8
num_cat=0
split_feature=8 40 2 25 24 40 10
split_gain=2.78502 3.52443 5.66146 5.06927 3.37982 9.12912 4.01186e-05
threshold=488.50000000000006 1.5000000000000002 7068.5000000000009 1.0000000180025095e-35 1.5000000000000002 1.5000000000000002 1.5000000000000002
decision_type=2 2 2 2 2 2 2
left_child=1 3 -3 -1 6 -6 -2
right_child=4 2 -4 -5 5 -7 -8
leaf_value=0.34584836214954917 -0.10320998823036416 0.017330742230533349 -0.034097025718034406 0.0079674502773552733 -0.10309997577467084 0.35545971465698584 -0.10266031546421972
leaf_weight=0.44506431370973487 2.720997290685772 33.986312922090292 57.828364038839936 192.15963891521096 1.2908551413565872 0.65415727905929077 2.5933325402438641
leaf_count=14 93 1170 1996 6552 47 24 104
internal_value=-0.000498655 0.00106244 -0.0150604 0.00874821 -0.0616622 0.0511253 -0.102942
internal_weight=291.679 284.419 91.8147 192.605 7.25934 1.94501 5.31433
internal_count=10000 9732 3166 6566 268 71 197
is_linear=0
shrinkage=0.1


Tree=20
num_leaves=7
num_cat=0
split_feature=24 6 0 3 25 6
split_gain=2.72486 2.73829 8.63137 3.26828 1.5977 8.0684e-05
threshold=3.5000000000000004 247.50000000000003 112.75535555059749 578.50000000000011 480.50000000000006 240.50000000000003
decision_type=2 2 2 2 2 2
left_child=1 3 -3 -1 5 -2
right_child=4 2 -4 -5 -6 -7
leaf_value=0.0014914513797949268 -0.10236951792348062 -0.016956732021986703 0.26262474427912613 -0.055359999742970338 0.084267374466168055 -0.10383932739967872
leaf_weight=271.84427929669619 3.3329262230545278 3.4033007435500613 1.6346035636961458 10.502656918019055 0.52147293835878361 0.42061044089496125
leaf_count=9296 153 82 43 402 11 13
internal_value=-0.000498282 0.000680599 0.0737566 -0.000623292 -0.0797478 -0.102534
internal_weight=291.66 287.385 5.0379 282.347 4.27501 3.75354
internal_count=10000 9823 125 9698 177 166
is_linear=0
shrinkage=0.1


Tree=21
num_leaves=8
num_cat=0
split_feature=26 17 0 26 26 25 26
split_gain=2.4795 8.81092 9.51386 7.95356 14.2735 7.22216 6.66146
threshold=204.50000000000003 3.5000000000000004 44.658080867653602 151.50000000000003 153.50000000000003 3.5000000000000004 336.50000000000006
decision_type=2 2 2 2 2 2 2
left_child=3 6 -3 5 -5 -1 -2
right_child=1 2 -4 4 -6 -7 -8
leaf_value=0.30953712482171758 -0.034146083889658743 0.32432037610432052 0.014294709577957913 0.3912314406921264 0.040855709565687313 -0.0073555547419683334 0.005712259266482422
leaf_weight=0.72529392316937347 73.801923365332186 1.6289828848093737 2.5227498263120651 1.2109748814255024 29.158780412748456 85.436451603658497 97.095306162722409
leaf_count=21 2571 43 71 38 1030 2940 3286
internal_value=-0.000479771 -0.0080037 0.135937 0.0108224 0.0548267 -0.00468801 -0.0115006
internal_weight=291.58 175.049 4.15173 116.532 30.3698 86.1617 170.897
internal_count=10000 5971 114 4029 1068 2961 5857
is_linear=0
shrinkage=0.1


Tree=22
num_leaves=8
num_cat=0
split_feature=8 8 8 40 24 42 10
split_gain=2.45833 3.19591 8.79587 4.69205 2.97232 7.55146 3.08741e-05
threshold=488.50000000000006 290.50000000000006 293.50000000000006 1.5000000000000002 1.5000000000000002 1.5000000000000002 1.5000000000000002
decision_type=2 2 2 2 2 2 2
left_child=1 3 -3 -1 6 -6 -2
right_child=4 2 -4 -5 5 -7 -8
leaf_value=0.002558115991135021 -0.10291368154616212 0.20736048570793481 0.0081298023606496423 -0.037024700211650274 -0.10318024061224294 0.29303206390694181 -0.10240720135023451
leaf_weight=94.332337821833789 2.4646664950996628 2.2505466304719439 144.29016371443868 43.875395549461246 1.3281815741211178 0.75417683459818352 2.35221092030406
leaf_count=3276 93 72 4793 1591 48 23 104
internal_value=-0.000528071 0.000901022 0.0111896 -0.0100078 -0.0595103 0.0403177 -0.102666
internal_weight=291.648 284.748 146.541 138.208 6.89924 2.08236 4.81688
internal_count=10000 9732 4865 4867 268 71 197
is_linear=0
shrinkage=0.1


Tree=23
num_leaves=7
num_cat=0
split_feature=24 10 25 5 14 25
split_gain=2.40478 2.52124 5.47153 4.19832 1.90404 0.000261124
threshold=3.5000000000000004 1.5000000000000002 479.50000000000006 1.0000000180025095e-35 2.5000000000000004 466.50000000000006
decision_type=2 2 2 2 2 2
left_child=1 2 -1 -3 5 -2
right_child=4 3 -4 -5 -6 -7
leaf_value=0.012352664726158138 -0.10225351893833075 -0.04175942558607592 -0.10247106694893365 0.00026058184433443144 0.11652802111898036 -0.10482962016542258
leaf_weight=150.87169269286096 3.065877528861165 31.056947743520141 4.2673518238589159 101.44064881373197 0.4469922063872217 0.45141376927494992
leaf_count=4753 151 1200 189 3681 14 12
internal_value=-0.000524109 0.000542005 0.00919425 -0.00958875 -0.0778782 -0.102584
internal_weight=291.601 287.637 155.139 132.498 3.96428 3.51729
internal_count=10000 9823 4942 4881 177 163
is_linear=0
shrinkage=0.1


Tree=24
num_leaves=8
num_cat=0
split_feature=2 14 46 3 20 8 0
split_gain=2.35881 6.41015 8.71442 4.4724 3.79292 6.61417 4.83253
threshold=16184.500000000002 2.5000000000000004 1.5000000000000002 547.50000000000011 1.5000000000000002 275.50000000000006 243.56526228183517
decision_type=2 2 2 2 2 2 2
left_child=4 3 -3 -2 6 -6 -1
right_child=1 2 -4 -5 5 -7 -8
leaf_value=-0.009443339088154222 -0.05309155822339711 0.26702864349352634 -0.10466282145214097 0.082216467636292367 -0.013367423146907406 0.049691957954906302 0.046991056224440504
leaf_weight=175.61616551596671 25.844428917393095 1.6190413972362867 1.0333717837929726 2.6978322044014922 28.919760126620531 39.150857390835881 16.608544073067605
leaf_count=6058 875 54 29 101 1024 1287 572
internal_value=-0.000498095 -0.0264834 0.122219 -0.0403022 0.00261607 0.0229012 -0.00456731
internal_weight=291.49 31.1947 2.65241 28.5423 260.295 68.0706 192.225
internal_count=10000 1059 83 976 8941 2311 6630
is_linear=0
shrinkage=0.1


Tree=25
num_leaves=8
num_cat=0
split_feature=46 13 47 3 6 6 25
split_gain=2.40534 4.8504 14.7551 6.53755 4.56721 8.4774 7.76228
threshold=1.5000000000000002 2.5000000000000004 1.5000000000000002 165.50000000000003 161.50000000000003 145.50000000000003 65.500000000000014
decision_type=2 2 2 2 2 2 2
left_child=4 3 -3 -2 5 -1 -6
right_child=1 2 -4 -5 6 -7 -8
leaf_value=-0.0067499023435747514 -0.062373842833893245 -0.016432234485127147 0.28182146785369017 0.016324120944400236 0.072066312307452279 -0.082551025334221109 -0.0045064322158812568
leaf_weight=60.058068740181625 12.158601203002034 4.5955626461654893 2.5955447275191545 80.069886070676148 15.327526769600807 19.558975859545171 97.136494391597807
leaf_count=2129 397 154 88 2626 490 727 3389
internal_value=-0.000509377 0.0121169 0.0912189 0.00594927 -0.00704463 -0.0253714 0.00592953
internal_weight=291.501 99.4196 7.19111 92.2285 192.081 79.617 112.464
internal_count=10000 3265 242 3023 6735 2856 3879
is_linear=0
shrinkage=0.1


Tree=26
num_leaves=8
num_cat=0
split_feature=11 26 48 26 2 2 14
split_gain=2.35928 5.85097 11.4852 10.2878 3.46215 5.65436 4.80076
threshold=1.0000000180025095e-35 206.50000000000003 1.0000000180025095e-35 164.50000000000003 15630.000000000002 15439.500000000002 2.5000000000000004
decision_type=2 2 2 2 2 2 2
left_child=1 3 -3 -1 5 -2 -6
right_child=4 2 -4 -5 6 -7 -8
leaf_value=0.013325796555201819 -0.0042428959350243227 0.050012928278384529 -0.039027402278177095 0.12871171666175507 -0.055844839024606456 0.15233976986678177 0.08737612096220071
leaf_weight=35.09833075106144 154.24883033428341 22.116003590635955 41.992675438523293 9.9084870629012567 23.230073015205566 2.3411986548453561 2.6026533246040335
leaf_count=1183 5322 733 1453 330 833 76 70
internal_value=-0.000539899 0.0110917 -0.00831056 0.0387286 -0.00749728 -0.00190181 -0.0414153
internal_weight=291.538 109.115 64.1087 45.0068 182.423 156.59 25.8327
internal_count=10000 3699 2186 1513 6301 5398 903
is_linear=0
shrinkage=0.1


Tree=27
num_leaves=8
num_cat=0
split_feature=45 21 5 3 2 6 2
split_gain=2.23167 7.14462 8.27547 6.84867 6.32067 6.28636 3.8702
threshold=1.0000000180025095e-35 3.5000000000000004 1.0000000180025095e-35 216.50000000000003 1906.0000000000002 116.50000000000001 3530.5000000000005
decision_type=2 2 2 2 2 2 2
left_child=1 3 -3 -1 5 -2 -6
right_child=4 2 -4 -5 6 -7 -8
leaf_value=0.029554820058529649 -0.10357434901036673 -0.019855029802072197 0.36539977867027157 -0.033060079754088166 -0.04278069674446016 0.10710271747311265 0.0058205307590975079
leaf_weight=23.311599879525602 1.6513092890381802 1.1712176445871585 1.0641739983111618 69.689198654145002 18.17268249951303 9.9532503429800254 166.53403642121702
leaf_count=811 52 31 31 2447 628 302 5698
internal_value=-0.00055738 -0.0131186 0.163548 -0.017365 0.00553643 0.0771237 0.00103882
internal_weight=291.547 95.2362 2.23539 93.0008 196.311 11.6046 184.707
internal_count=10000 3320 62 3258 6680 354 6326
is_linear=0
shrinkage=0.1


Tree=28
num_leaves=8
num_cat=0
split_feature=3 23 8 12 2 24 26
split_gain=2.18089 5.13792 8.17922 2.54023 15.0391 3.07411 1.56807
threshold=578.50000000000011 1.5000000000000002 333.50000000000006 2.5000000000000004 6326.5000000000009 3.5000000000000004 469.50000000000006
decision_type=2 2 2 2 2 2 2
left_child=3 6 -3 5 -5 -1 -2
right_child=1 2 -4 4 -6 -7 -8
leaf_value=-0.00063420016000212593 -0.10280987944449707 -0.10304180113621648 0.22996668013056021 0.15696857828413649 -0.017651399167867298 -0.10259772725004956 0.067734111156574434
leaf_weight=253.88948412239552 6.9034940507262927 1.4504048256203534 1.5007204059511421 6.8947696294635561 17.326701021753252 2.9916915772482744 0.58479722496122111
leaf_count=8664 281 57 56 217 554 150 21
internal_value=-0.000569417 -0.0454502 0.0663013 0.00109734 0.0320551 -0.00182169 -0.0894913
internal_weight=291.542 10.4394 2.95113 281.103 24.2215 256.881 7.48829
internal_count=10000 415 113 9585 771 8814 302
is_linear=0
shrinkage=0.1


Tree=29
num_leaves=8
num_cat=0
split_feature=8 26 13 8 26 26 24
split_gain=2.17645 2.73847 8.51496 2.70828 7.04132 3.09337 7.75832e-05
threshold=488.50000000000006 330.50000000000006 1.0000000180025095e-35 466.50000000000006 303.50000000000006 204.50000000000003 1.5000000000000002
decision_type=2 2 2 2 2 2 2
left_child=3 6 -3 5 -5 -1 -2
right_child=1 2 -4 4 -6 -7 -8
leaf_value=0.011295105134813872 -0.10246658938368312 0.32020199701647462 -0.1030201757330908 -0.0094077588387686557 0.12536903271230479 -0.010573687891575898 -0.10339047806488327
leaf_weight=108.87735139392316 3.123684915713965 0.70440489146858487 1.4621625961735842 10.621698606759312 6.1039903722703448 159.34603694453835 1.281943039037287
leaf_count=3677 140 24 58 353 187 5515 46
internal_value=-0.000574447 -0.0574685 0.0345799 0.000737784 0.0397786 -0.0016967 -0.102735
internal_weight=291.521 6.5722 2.16657 284.949 16.7257 268.223 4.40563
internal_count=10000 268 82 9732 540 9192 186
is_linear=0
shrinkage=0.1


Tree=30
num_leaves=5
num_cat=0
split_feature=26 26 26 19
split_gain=2.08916 2.56067 15.6546 6.67377
threshold=498.50000000000006 481.50000000000006 480.50000000000006 2.5000000000000004
decision_type=2 2 2 2
left_child=1 2 -1 -3
right_child=-2 3 -4 -5
leaf_value=-0.00042755378151877071 0.13028961607634437 -0.073299219138716745 0.4765960565436882 0.1985193005916201
leaf_weight=278.61036655958742 1.2151023037731636 9.9364677630364859 0.6896622683852901 0.99358075670898038
leaf_count=9598 14 332 23 33
internal_value=-0.000559988 -0.00110781 0.000750338 -0.0485899
internal_weight=291.445 290.23 279.3 10.93
internal_count=10000 9986 9621 365
is_linear=0
shrinkage=0.1


Tree=31
num_leaves=8
num_cat=0
split_feature=46 22 21 8 40 8 20
split_gain=1.99618 4.56715 4.72193 4.15578 4.26887 3.08469 1.89869
threshold=1.5000000000000002 2.5000000000000004 1.0000000180025095e-35 480.50000000000006 1.5000000000000002 496.50000000000006 1.0000000180025095e-35
decision_type=2 2 2 2 2 2 2
left_child=3 2 -2 4 -1 -5 -3
right_child=1 6 -4 5 -6 -7 -8
leaf_value=0.0069123857341288515 0.046682368328156698 -0.0003532282034431674 -0.0001536965830405022 -0.10316923302881267 -0.025880755679804843 0.07852985904500015 -0.10340524137914407
leaf_weight=124.96120265033096 33.907441351562738 2.9006275199353686 58.948851768858731 6.7328882403671733 58.176875692792237 1.084894500672817 4.6605729162693024
leaf_count=4333 1096 93 1920 256 2103 43 156
internal_value=-0.00055065 0.0108633 0.016949 -0.00655288 -0.0035049 -0.0779544 -0.0638724
internal_weight=291.373 100.417 92.8563 190.956 183.138 7.81778 7.5612
internal_count=10000 3265 3016 6735 6436 299 249
is_linear=0
shrinkage=0.1


Tree=32
num_leaves=8
num_cat=0
split_feature=3 3 8 0 4 0 5
split_gain=1.94065 7.45304 13.2754 6.55651 8.61698 4.531 3.53435
threshold=530.50000000000011 521.50000000000011 436.50000000000006 6.7158691448705472 1.0000000180025095e-35 73.04131025883089 2.5000000000000004
decision_type=2 2 2 2 2 2 2
left_child=1 6 -3 4 -2 -5 -1
right_child=3 2 -4 5 -6 -7 -8
leaf_value=-0.0072850185983695448 0.409923846887014 0.062941109566358344 0.55730689697596858 -0.068975733975652806 0.010501299974545355 0.0036463999178681598 0.019662362568591711
leaf_weight=181.97577961534262 0.77937616407871191 5.3596669789403668 0.60444963164627541 17.54357454739511 1.7594360448420046 16.835939065553248 66.442570436745882
leaf_count=6295 28 152 19 658 66 645 2137
internal_value=-0.000534845 0.00257458 0.113044 -0.0219601 0.133118 -0.0334121 -7.76071e-05
internal_weight=291.301 254.382 5.96412 36.9183 2.53881 34.3795 248.418
internal_count=10000 8603 171 1397 94 1303 8432
is_linear=0
shrinkage=0.1


Tree=33
num_leaves=8
num_cat=0
split_feature=10 25 0 5 25 25 23
split_gain=1.92025 4.83102 4.5032 3.50328 5.58291 4.50971 2.9391e-05
threshold=1.5000000000000002 479.50000000000006 32.666279844935566 1.0000000180025095e-35 304.50000000000006 481.50000000000006 2.5000000000000004
decision_type=2 2 2 2 2 2 2
left_child=1 2 -1 4 -2 -5 -3
right_child=3 6 -4 5 -6 -7 -8
leaf_value=0.035700847196825224 -0.0054347328747626003 -0.10220812030244782 -0.001538775343938913 -0.0060400390104492852 -0.094162978538024716 0.080684533143966619 -0.10310464982352602
leaf_weight=46.479222816415131 18.470732411369685 3.5432649897411461 107.7512872479856 96.767596413381398 11.510859988629816 6.3921162821352473 0.40774613432586182
leaf_count=1328 752 178 3513 3604 465 144 16
internal_value=-0.000561796 0.00688672 0.00968383 -0.00941117 -0.0395002 -0.000666298 -0.102301
internal_weight=291.323 158.182 154.231 133.141 29.9816 103.16 3.95101
internal_count=10000 5035 4841 4965 1217 3748 194
is_linear=0
shrinkage=0.1


Tree=34
num_leaves=7
num_cat=0
split_feature=24 8 0 6 25 25
split_gain=1.90528 2.26263 3.45606 3.17758 2.20159 6.77474e-05
threshold=3.5000000000000004 133.50000000000003 3.7465225802741275 238.50000000000003 490.50000000000006 437.50000000000006
decision_type=2 2 2 2 2 2
left_child=1 2 -1 -3 5 -2
right_child=4 3 -4 -5 -6 -7
leaf_value=0.19168211531245372 -0.10200512993354403 -0.00053873137611938182 -0.037573776556436615 0.037751774019143265 0.15508711175172837 -0.10347559495047348
leaf_weight=0.67851541005075233 2.7258146097883582 241.9566566478461 21.298541637137532 23.805084941908717 0.37292972579598416 0.35400748997926701
leaf_count=25 157 8366 794 638 6 14
internal_value=-0.000545052 0.000341029 -0.0304958 0.00289107 -0.0743875 -0.102174
internal_weight=291.192 287.739 21.9771 265.762 3.45275 3.07982
internal_count=10000 9823 819 9004 177 171
is_linear=0
shrinkage=0.1


Tree=35
num_leaves=8
num_cat=0
split_feature=3 22 3 8 26 2 26
split_gain=1.87698 9.26764 7.05505 9.4034 6.79127 5.70269 5.18304
threshold=337.50000000000006 1.5000000000000002 301.50000000000006 389.50000000000006 464.50000000000006 16366.500000000002 54.500000000000007
decision_type=2 2 2 2 2 2 2
left_child=2 6 5 -4 -3 -1 -2
right_child=1 4 3 -5 -6 -7 -8
leaf_value=0.0050619215105700164 0.03870508788619216 0.020911931857145332 0.020702622159673442 0.16741459503230138 0.17204234635380786 -0.06875477134696853 -0.03110582914890966
leaf_weight=109.51439289003611 11.950621464289723 35.390601846389472 16.878901916556064 5.8943248111754647 3.2460782043635836 11.571592990308998 96.604613240808249
leaf_count=3680 420 1241 542 181 101 413 3422
internal_value=-0.000511537 -0.00845065 0.0076115 0.0586756 0.0336092 -0.00199238 -0.0234205
internal_weight=291.051 147.192 143.859 22.7732 38.6367 121.086 108.555
internal_count=10000 5184 4816 723 1342 4093 3842
is_linear=0
shrinkage=0.1


Tree=36
num_leaves=7
num_cat=0
split_feature=8 24 13 8 42 10
split_gain=1.86092 2.74279 5.59403 2.68945 2.54776 2.30469e-05
threshold=488.50000000000006 1.5000000000000002 1.0000000180025095e-35 487.50000000000006 1.5000000000000002 1.5000000000000002
decision_type=2 2 2 2 2 2
left_child=3 5 -3 4 -1 -2
right_child=1 2 -4 -5 -6 -7
leaf_value=0.0067304744330752399 -0.102598281213437 0.22792662461057658 -0.10338590110908552 0.2034862409674433 -0.01350115950408157 -0.1021235398105262
leaf_weight=192.17895907908678 2.1039043786004177 0.89197552576661143 1.1888825939968226 0.65215060859918494 92.061029704287648 1.9896083194762466
leaf_count=6552 93 25 46 23 3157 104
internal_value=-0.000533977 -0.0548479 0.0386337 0.000643151 0.000177754 -0.102368
internal_weight=291.067 6.17437 2.08086 284.892 284.24 4.09351
internal_count=10000 268 71 9732 9709 197
is_linear=0
shrinkage=0.1


Tree=37
num_leaves=8
num_cat=0
split_feature=6 6 6 21 26 15 12
split_gain=1.82395 8.7448 7.45556 7.04469 8.66601 6.82685 4.79859
threshold=134.50000000000003 161.50000000000003 162.50000000000003 3.5000000000000004 261.50000000000006 4.5000000000000009 1.0000000180025095e-35
decision_type=2 2 2 2 2 2 2
left_child=3 6 -3 5 -5 -1 -2
right_child=1 2 -4 4 -6 -7 -8
leaf_value=0.0056334044867574545 -0.085463847899554385 0.17866809760933061 0.0030249920032285049 0.014730268738913392 0.4980922483125616 0.31942138503976675 -0.019337958330027476
leaf_weight=68.715223457664251 16.988737701438367 2.4516073828563085 169.59998256806284 0.84275808557867893 0.66249008290469646 0.70040999352931876 30.997398877516389
leaf_count=2380 633 74 5699 25 17 10 1162
internal_value=-0.000505449 -0.00500045 0.00552778 0.0134406 0.227468 0.00879955 -0.0427488
internal_weight=290.959 220.038 172.052 70.9209 1.50525 69.4156 47.9861
internal_count=10000 7568 5773 2432 42 2390 1795
is_linear=0
shrinkage=0.1


Tree=38
num_leaves=8
num_cat=0
split_feature=3 24 8 3 22 6 12
split_gain=1.82227 4.24294 6.0147 2.25579 7.40095 5.35541 1.57569
threshold=113.50000000000001 1.5000000000000002 270.50000000000006 337.50000000000006 1.5000000000000002 247.50000000000003 2.5000000000000004
decision_type=2 2 2 2 2 2 2
left_child=1 6 -3 5 -5 -2 -1
right_child=3 2 -4 4 -6 -7 -8
leaf_value=-0.10343907509042208 0.0072666670718007243 -0.10394005666205897 0.22151424755780702 -0.021577189065273152 0.028924339269381073 0.14813640675250314 0.069669091251758936
leaf_weight=5.7859740545973164 133.41014945879579 1.0554538769647481 1.2291531087830661 106.1705708829686 39.933373142033815 2.7544350000098339 0.57837948389351357
leaf_count=199 4462 35 40 3842 1342 60 20
internal_value=-0.000529244 -0.045743 0.0711593 0.000856146 -0.00777403 0.0101163 -0.0877074
internal_weight=290.917 8.64896 2.28461 282.269 146.104 136.165 6.36435
internal_count=10000 294 75 9706 5184 4522 219
is_linear=0
shrinkage=0.1


Tree=39
num_leaves=8
num_cat=0
split_feature=11 26 48 26 2 2 17
split_gain=1.79701 4.13146 9.36615 7.23641 2.86244 5.33218 4.95135
threshold=1.0000000180025095e-35 206.50000000000003 1.0000000180025095e-35 164.50000000000003 14078.000000000002 11882.000000000002 2.5000000000000004
decision_type=2 2 2 2 2 2 2
left_child=1 3 -3 -1 5 -2 -6
right_child=4 2 -4 -5 6 -7 -8
leaf_value=0.010134270871164641 -0.008516625863144292 0.04374864131320956 -0.036265891137733618 0.10234157844908567 -0.039882703185992532 0.044247675600846192 0.092326732135954909
leaf_weight=36.001434574835002 116.75135158468038 22.985077993012965 40.242254229262471 11.146393807604907 37.757429765537381 22.910868821665645 3.0624459180980912
leaf_count=1183 4038 733 1453 330 1366 793 104
internal_value=-0.000522473 0.00952871 -0.00717815 0.0319333 -0.00666935 0.000139086 -0.0299639
internal_weight=290.857 110.375 63.2273 47.1478 180.482 139.662 40.8199
internal_count=10000 3699 2186 1513 6301 4831 1470
is_linear=0
shrinkage=0.1


Tree=40
num_leaves=8
num_cat=0
split_feature=26 25 41 26 6 1 3
split_gain=1.86281 6.04478 6.37576 4.75357 6.80778 6.25634 2.87538
threshold=358.50000000000006 427.50000000000006 1.0000000180025095e-35 261.50000000000006 170.50000000000003 1.5000000000000002 192.50000000000003
decision_type=2 2 2 2 2 2 2
left_child=3 2 -2 4 -1 -5 -3
right_child=1 6 -4 5 -6 -7 -8
leaf_value=-0.019695526275927602 0.063845403835384271 0.054723617612588996 0.0015970281032303827 -0.074326995944671501 0.022869933639522201 -0.0042944868449433724 -0.081710660803609017
leaf_weight=69.28337658662349 24.463526945561171 1.8681336985900987 50.256968937814236 20.708093103021383 82.098613118752837 33.219288253225386 8.9225448388606292
leaf_count=2467 814 60 1706 757 2688 1197 311
internal_value=-0.000527828 0.0118734 0.0219772 -0.00569293 0.00338889 -0.0311869 -0.0580905
internal_weight=290.821 85.5112 74.7205 205.309 151.382 53.9274 10.7907
internal_count=10000 2891 2520 7109 5155 1954 371
is_linear=0
shrinkage=0.1


Tree=41
num_leaves=5
num_cat=0
split_feature=18 3 26 26
split_gain=1.81183 2.37508 5.33475 1.9745
threshold=4.5000000000000009 571.50000000000011 27.500000000000004 42.500000000000007
decision_type=2 2 2 2
left_child=1 3 -3 -1
right_child=-2 2 -4 -5
leaf_value=-0.026112237409261094 0.1510148342644044 0.16813163928867692 -0.061605460382406885 0.0036613006708912962
leaf_weight=24.429931217804551 0.78678315877914329 1.1029908964410413 12.088902741670607 252.3853961918503
leaf_count=789 28 39 505 8639
internal_value=-0.000530754 -0.000941894 -0.0423969 0.00103368
internal_weight=290.794 290.007 13.1919 276.815
internal_count=10000 9972 544 9428
is_linear=0
shrinkage=0.1


Tree=42
num_leaves=8
num_cat=0
split_feature=6 6 13 24 6 12 2
split_gain=1.79802 6.76999 6.54895 6.11461 5.05805 4.53929 3.0698
threshold=134.50000000000003 161.50000000000003 1.0000000180025095e-35 2.5000000000000004 162.50000000000003 1.0000000180025095e-35 9432.5000000000018
decision_type=2 2 2 2 2 2 2
left_child=2 5 6 -4 -3 -2 -1
right_child=1 4 3 -5 -6 -7 -8
leaf_value=0.011650555134101943 -0.083399015432264481 0.13567548785069211 0.047004206043152391 -0.10294679966751522 0.0017993381768311237 -0.016682418421569884 -0.056266679182768155
leaf_weight=12.147129881195726 15.433752548880873 2.8693667054176322 41.124696901999414 2.9119331976398817 171.42209131456912 30.062364587560296 14.719281648285685
leaf_count=415 633 74 1402 119 5699 1162 496
internal_value=-0.000496571 -0.00496354 0.0133503 0.0370887 0.00400335 -0.0393148 -0.0255592
internal_weight=290.691 219.788 70.903 44.0366 174.291 45.4961 26.8664
internal_count=10000 7568 2432 1521 5773 1795 911
is_linear=0
shrinkage=0.1


Tree=43
num_leaves=8
num_cat=0
split_feature=45 5 9 26 2 8 13
split_gain=1.70075 6.13723 10.4468 5.27435 4.07637 4.74225 3.53398
threshold=1.0000000180025095e-35 2.5000000000000004 91.500000000000014 478.50000000000006 1906.0000000000002 183.50000000000003 1.5000000000000002
decision_type=2 2 2 2 2 2 2
left_child=1 3 -3 -1 5 -2 -6
right_child=4 2 -4 -5 6 -7 -8
leaf_value=-0.033726030437734422 -0.063861859969422383 0.077276115458469796 -0.057899392166728951 0.091513388150950781 0.0091867378713730522 0.089360100856157101 -0.022367415795078432
leaf_weight=64.640969689004123 2.5127881402149788 16.518607234582305 8.7434209678322095 3.5472231549210838 136.39250727090985 10.299135100096462 47.979391775093973
leaf_count=2388 81 529 293 110 4683 273 1643
internal_value=-0.000500706 -0.0116127 0.0304906 -0.0272109 0.00476554 0.0593088 0.00097535
internal_weight=290.634 93.4502 25.262 68.1882 197.184 12.8119 184.372
internal_count=10000 3320 822 2498 6680 354 6326
is_linear=0
shrinkage=0.1


Tree=44
num_leaves=8
num_cat=0
split_feature=8 26 20 42 18 8 12
split_gain=1.69794 2.57514 4.24735 1.88819 5.62442 3.51762 1.53331
threshold=488.50000000000006 413.50000000000006 1.0000000180025095e-35 1.5000000000000002 1.0000000180025095e-35 133.50000000000003 2.5000000000000004
decision_type=2 2 2 2 2 2 2
left_child=3 6 -3 5 -5 -1 -2
right_child=1 2 -4 4 -6 -7 -8
leaf_value=-0.041121607844412725 -0.10262904102112871 0.30493567683590356 -0.10243584626390892 0.021140310911648249 -0.030379740526777395 0.010005529054942083 0.085743714902526247
leaf_weight=14.549047039821742 4.3819902148097745 0.4856229694560168 0.54113524314016104 33.650012293830514 57.224572025239468 179.2691006353125 0.4793805619701742
leaf_count=572 213 15 26 1158 2005 5997 14
internal_value=-0.000508146 -0.0536611 0.0902375 0.000591185 -0.0113023 0.00616765 -0.0840536
internal_weight=290.581 5.88813 1.02676 284.693 90.8746 193.818 4.86137
internal_count=10000 268 41 9732 3163 6569 227
is_linear=0
shrinkage=0.1


Tree=45
num_leaves=8
num_cat=0
split_feature=2 2 25 13 6 2 9
split_gain=1.68386 5.46587 15.6106 4.68107 11.2603 4.08997 3.50903
threshold=3419.5000000000005 4139.5000000000009 126.50000000000001 2.5000000000000004 166.50000000000003 1983.5000000000002 73.500000000000014
decision_type=2 2 2 2 2 2 2
left_child=3 2 -2 5 -5 -1 -3
right_child=1 6 -4 4 -6 -7 -8
leaf_value=0.0068202510940379426 0.2503515336348931 0.016351290156395578 0.00056644534147780865 -0.056852375585691665 0.30290866049011378 -0.057585266309210251 -0.0095372915994197931
leaf_weight=17.967700382694602 3.3890990167856208 79.04057642724365 9.5586973745375854 2.1227189823985095 1.4742250870913265 21.850670238956809 155.08421820495278
leaf_count=522 114 2681 330 66 45 780 5462
internal_value=-0.000491056 0.00270047 0.0659479 -0.0186538 0.0905974 -0.0285228 -0.000797301
internal_weight=290.488 247.073 12.9478 43.4153 3.59694 39.8184 234.125
internal_count=10000 8587 444 1413 111 1302 8143
is_linear=0
shrinkage=0.1


Tree=46
num_leaves=7
num_cat=0
split_feature=24 25 10 25 26 25
split_gain=1.63316 1.97906 1.75188 4.04841 3.35265 6.17796e-05
threshold=3.5000000000000004 490.50000000000006 1.5000000000000002 479.50000000000006 2.5000000000000004 441.50000000000006
decision_type=2 2 2 2 2 2
left_child=2 5 3 -1 -4 -2
right_child=1 -3 4 -5 -6 -7
leaf_value=0.0097344428682158302 -0.10190903489334294 0.13697067002798041 0.16412173139375108 -0.10198371094870051 -0.0097982306188609744 -0.10343906088173004
leaf_weight=153.74812861904502 2.4638678710907698 0.39605043083429325 1.1179740242660035 3.3135811402462414 129.19553278386593 0.29556237626820792
leaf_count=4753 158 6 36 189 4845 13
internal_value=-0.000520078 -0.0720701 0.000265567 0.00737749 -0.00830615 -0.102073
internal_weight=290.531 3.15548 287.375 157.062 130.314 2.75943
internal_count=10000 177 9823 4942 4881 171
is_linear=0
shrinkage=0.1


Tree=47
num_leaves=8
num_cat=0
split_feature=3 24 6 6 13 6 0
split_gain=1.63668 3.47188 5.13731 1.68871 6.21944 5.24032 1.63752
threshold=113.50000000000001 1.5000000000000002 194.50000000000003 134.50000000000003 1.0000000180025095e-35 161.50000000000003 247.29104749991725
decision_type=2 2 2 2 2 2 2
left_child=1 6 -3 4 -2 -5 -1
right_child=3 2 -4 5 -6 -7 -8
leaf_value=-0.10330385405213212 -0.025013556808861793 0.18306036443213247 -0.10451777357580821 -0.0349668007375845 0.037118001355236616 0.004245526184877454 0.077134069574411324
leaf_weight=5.3068748218938691 25.429950721561909 1.3874290920794012 1.1247861757874487 42.626863758545369 43.965637564193457 169.99675487354398 0.55561427958309639
leaf_count=197 882 43 32 1747 1472 5605 22
internal_value=-0.000488705 -0.0440542 0.0543039 0.000804994 0.0143499 -0.00361578 -0.0862029
internal_weight=290.394 8.3747 2.51222 282.019 69.3956 212.624 5.86249
internal_count=10000 294 75 9706 2354 7352 219
is_linear=0
shrinkage=0.1


Tree=48
num_leaves=8
num_cat=0
split_feature=46 25 25 2 8 40 8
split_gain=1.58359 4.50193 6.72384 4.03421 3.6431 3.62087 2.51517
threshold=1.5000000000000002 113.50000000000001 118.50000000000001 17511.000000000004 480.50000000000006 1.5000000000000002 496.50000000000006
decision_type=2 2 2 2 2 2 2
left_child=4 3 -3 -2 5 -1 -6
right_child=1 2 -4 -5 6 -7 -8
leaf_value=0.0063413835489188929 -0.034998705240124925 0.27031303814419005 0.017833453618736114 0.22638706601034905 -0.10304144237851649 -0.02410124391719419 0.057872824597125394
leaf_weight=125.26298675127327 23.25433052144945 1.0695712324231852 76.308240520767868 0.60584847256541152 5.8790670502930871 56.78091246727854 1.1636104891076682
leaf_count=4333 756 35 2453 21 256 2103 43
internal_value=-0.00047999 0.00961342 0.0213234 -0.0283617 -0.00588406 -0.00315391 -0.0764547
internal_weight=290.325 101.238 77.3778 23.8602 189.087 182.044 7.04268
internal_count=10000 3265 2488 777 6735 6436 299
is_linear=0
shrinkage=0.1


Tree=49
num_leaves=8
num_cat=0
split_feature=13 6 3 40 25 26 0
split_gain=1.52038 7.83982 18.9623 4.2598 3.44712 8.59125 2.96314
threshold=1.5000000000000002 103.50000000000001 504.50000000000006 1.5000000000000002 27.500000000000004 54.500000000000007 542.37951231291697
decision_type=2 2 2 2 2 2 2
left_child=4 2 -2 -3 5 -1 -6
right_child=1 3 -4 -5 6 -7 -8
leaf_value=0.27100889896878622 -0.045960701313487395 -0.003220097697875849 0.50767539953984064 -0.056455497562071605 -0.00013200229271388846 0.023465760433523497 0.21846075956767447
leaf_weight=1.5924304043874133 1.7009980492293828 50.693056324031204 0.97224507108330716 21.366351151838899 201.5987947890535 11.725352236069737 0.62204122357070346
leaf_count=43 51 1717 22 799 6958 387 23
internal_value=-0.000475733 -0.0127666 0.155394 -0.0190049 0.00378581 0.0530649 0.0005404
internal_weight=290.271 74.7327 2.67324 72.0594 215.539 13.3178 202.221
internal_count=10000 2589 73 2516 7411 430 6981
is_linear=0
shrinkage=0.1


end of trees

feature_importances:
card5=35
dist1=34
dist2=34
addr1=27
card2=25
card1=22
C14=15
TransactionAmt=12
P_emaildomain=12
C2=9
C3=9
card4=8
C4=8
M7=8
M1=6
C5=5
C10=5
addr2=4
C8=4
C11=4
C12=4
C1=3
C7=3
C13=3
M3=3
M6=3
M9=3
M2=2
M8=2
ProductCD=1
card3=1
card6=1
C9=1
M4=1

parameters:
[boosting: gbdt]
[objective: binary]
[metric: binary_logloss]
[tree_learner: serial]
[device_type: cpu]
[data_sample_strategy: bagging]
[data: ]
[valid: ]
[num_iterations: 50]
[learning_rate: 0.1]
[num_leaves: 31]
[num_threads: 1]
[seed: 0]
[deterministic: 0]
[force_col_wise: 0]
[force_row_wise: 0]
[histogram_pool_size: -1]
[max_depth: 3]
[min_data_in_leaf: 20]
[min_sum_hessian_in_leaf: 0.001]
[bagging_fraction: 1]
[pos_bagging_fraction: 1]
[neg_bagging_fraction: 1]
[bagging_freq: 0]
[bagging_seed: 3]
[bagging_by_query: 0]
[feature_fraction: 1]
[feature_fraction_bynode: 1]
[feature_fraction_seed: 2]
[extra_trees: 0]
[extra_seed: 6]
[early_stopping_round: 0]
[early_stopping_min_delta: 0]
[first_metric_only: 0]
[max_delta_step: 0]
[lambda_l1: 0]
[lambda_l2: 0]
[linear_lambda: 0]
[min_gain_to_split: 0]
[drop_rate: 0.1]
[max_drop: 50]
[skip_drop: 0.5]
[xgboost_dart_mode: 0]
[uniform_drop: 0]
[drop_seed: 4]
[top_rate: 0.2]
[other_rate: 0.1]
[min_data_per_group: 100]
[max_cat_threshold: 32]
[cat_l2: 10]
[cat_smooth: 10]
[max_cat_to_onehot: 4]
[top_k: 20]
[monotone_constraints: ]
[monotone_constraints_method: basic]
[monotone_penalty: 0]
[feature_contri: ]
[forcedsplits_filename: ]
[refit_decay_rate: 0.9]
[cegb_tradeoff: 1]
[cegb_penalty_split: 0]
[cegb_penalty_feature_lazy: ]
[cegb_penalty_feature_coupled: ]
[path_smooth: 0]
[interaction_constraints: ]
[verbosity: -1]
[saved_feature_importance_type: 0]
[use_quantized_grad: 0]
[num_grad_quant_bins: 4]
[quant_train_renew_leaf: 0]
[stochastic_rounding: 1]
[linear_tree: 0]
[max_bin: 255]
[max_bin_by_feature: ]
[min_data_in_bin: 3]
[bin_construct_sample_cnt: 200000]
[data_random_seed: 1]
[is_enable_sparse: 1]
[enable_bundle: 1]
[use_missing: 1]
[zero_as_missing: 0]
[feature_pre_filter: 1]
[pre_partition: 0]
[two_round: 0]
[header: 0]
[label_column: ]
[weight_column: ]
[group_column: ]
[ignore_column: ]
[categorical_feature: ]
[forcedbins_filename: ]
[precise_float_parser: 0]
[parser_config_file: ]
[objective_seed: 5]
[num_class: 1]
[is_unbalance: 0]
[scale_pos_weight: 1]
[sigmoid: 1]
[boost_from_average: 1]
[reg_sqrt: 0]
[alpha: 0.9]
[fair_c: 1]
[poisson_max_delta_step: 0.7]
[tweedie_variance_power: 1.5]
[lambdarank_truncation_level: 30]
[lambdarank_norm: 1]
[label_gain: ]
[lambdarank_position_bias_regularization: 0]
[eval_at: ]
[multi_error_top_k: 1]
[auc_mu_weights: ]
[num_machines: 1]
[local_listen_port: 12400]
[time_out: 120]
[machine_list_filename: ]
[machines: ]
[gpu_platform_id: -1]
[gpu_device_id: -1]
[gpu_use_dp: 0]
[num_gpu: 1]

end of parameters

pandas_categorical:[]
